<?xml version="1.0"?>
<opencv_storage>
<cascade>
  <stageType>BOOST</stageType>
  <featureType>HAAR</featureType>
  <height>20</height>
  <width>20</width>
  <stageParams>
    <boostType>GAB</boostType>
    <minHitRate>9.9500000476837158e-01</minHitRate>
    <maxFalseAlarm>1.0000000149011612e-01</maxFalseAlarm>
    <weightTrimRate>9.4999999999999996e-01</weightTrimRate>
    <maxDepth>1</maxDepth>
    <maxWeakCount>100</maxWeakCount></stageParams>
  <featureParams>
    <maxCatCount>0</maxCatCount>
    <featSize>1</featSize>
    <mode>BASIC</mode></featureParams>
  <stageNum>3</stageNum>
  <stages>
    <!-- stage 0 -->
    <_>
      <maxWeakCount>1</maxWeakCount>
      <stageThreshold>9.7044336795806885e-01</stageThreshold>
      <weakClassifiers>
        <_>
          <internalNodes>
            0 -1 5 1.5761259943246841e-02</internalNodes>
          <leafValues>
            -1. 9.7044336795806885e-01</leafValues></_></weakClassifiers></_>
    <!-- stage 1 -->
    <_>
      <maxWeakCount>2</maxWeakCount>
      <stageThreshold>-1.6147902235388756e-02</stageThreshold>
      <weakClassifiers>
        <_>
          <internalNodes>
            0 -1 2 -1.4108446426689625e-02</internalNodes>
          <leafValues>
            9.8000001907348633e-01 -9.5999997854232788e-01</leafValues></_>
        <_>
          <internalNodes>
            0 -1 0 -8.6999997496604919e-02</internalNodes>
          <leafValues>
            9.4385212659835815e-01 -1.</leafValues></_></weakClassifiers></_>
    <!-- stage 2 -->
    <_>
      <maxWeakCount>3</maxWeakCount>
      <stageThreshold>8.7717884778976440e-01</stageThreshold>
      <weakClassifiers>
        <_>
          <internalNodes>
            0 -1 1 -8.7742134928703308e-03</internalNodes>
          <leafValues>
            8.8679248094558716e-01 -1.</leafValues></_>
        <_>
          <internalNodes>
            0 -1 4 -5.2429824136197567e-03</internalNodes>
          <leafValues>
            9.2932033538818359e-01 -9.3203771114349365e-01</leafValues></_>
        <_>
          <internalNodes>
            0 -1 3 2.1216364577412605e-02</internalNodes>
          <leafValues>
            -8.0825686454772949e-01 9.2242407798767090e-01</leafValues></_></weakClassifiers></_></stages>
  <features>
    <_>
      <rects>
        <_>
          2 7 17 8 -1.</_>
        <_>
          2 11 17 4 2.</_></rects>
      <tilted>0</tilted></_>
    <_>
      <rects>
        <_>
          3 8 6 1 -1.</_>
        <_>
          6 8 3 1 2.</_></rects>
      <tilted>0</tilted></_>
    <_>
      <rects>
        <_>
          5 7 6 2 -1.</_>
        <_>
          7 7 2 2 3.</_></rects>
      <tilted>0</tilted></_>
    <_>
      <rects>
        <_>
          6 5 4 6 -1.</_>
        <_>
          6 5 2 3 2.</_>
        <_>
          8 8 2 3 2.</_></rects>
      <tilted>0</tilted></_>
    <_>
      <rects>
        <_>
          11 9 4 4 -1.</_>
        <_>
          13 9 2 4 2.</_></rects>
      <tilted>0</tilted></_>
    <_>
      <rects>
        <_>
          12 6 4 4 -1.</_>
        <_>
          14 6 2 4 2.</_></rects>
      <tilted>0</tilted></_></features></cascade>
</opencv_storage>
